SVM-light Version V6.02
0 # kernel type
3 # kernel parameter -d 
1 # kernel parameter -g 
1 # kernel parameter -s 
1 # kernel parameter -r 
empty# kernel parameter -u 
28836 # highest feature index 
300 # number of training documents 
88 # number of support vectors plus 1 
0.050622126 # threshold b, each following line is a SV (starting with alpha*y)
-0.033308318820563190265637842912838 2766:1 12249:1 16568:1 17894:1 18140:1 19857:1 23096:1 23187:1 #
-0.038725063761863867672907701944496 984:1 990:1 1003:1 6970:1 8396:1 9138:1 15234:1 19857:1 23096:1 25805:1 26059:1 26481:1 26737:1 27225:1 27901:1 28120:1 28752:1 #
-0.028734067250522809383594946552876 5708:1 5839:1 6285:1 6353:1 7233:1 7945:1 8047:1 8252:1 15201:1 15265:1 16568:1 16593:1 19019:1 19733:1 19857:1 19986:1 19999:1 20814:1 22095:1 23441:1 26481:1 27448:1 27895:1 28199:1 28752:1 #
-0.033418527425982239020818553854042 6716:1 10974:1 11161:1 12987:1 13205:1 14592:1 15234:1 19127:1 19224:1 19857:1 20109:1 20429:1 23187:1 23599:1 26191:1 26199:1 26540:1 27014:1 27811:1 27942:1 28276:1 #
-0.046459942809146753672777663268789 984:1 5901:1 6185:1 6411:1 13864:1 18837:1 19857:1 22516:1 23096:1 23438:1 26481:1 27775:1 28396:1 #
0.013154653018419584092901786220864 7422:1 7615:1 8985:1 11647:1 11930:1 12176:1 13445:1 14422:1 15283:1 17523:1 18423:1 18837:1 19733:1 19823:1 20054:1 20814:1 23187:1 23446:1 24110:1 25106:1 26262:1 28147:1 28465:1 #
0.027462798351561762411066069944354 6957:1 9823:1 10347:1 11957:1 13864:1 15234:1 15265:1 16438:1 20005:1 20362:1 20368:1 21559:1 22937:1 23096:1 23266:1 24059:1 25805:1 25875:1 26185:1 26191:1 #
0.0070302855845622716848830613400878 6299:1 8136:1 8985:1 9138:1 10264:1 11138:1 13864:1 14499:1 15124:1 15265:1 15478:1 15864:1 16568:1 16593:1 17926:1 18049:1 19424:1 19857:1 21449:1 21559:1 25327:1 26191:1 26550:1 #
0.014675292789954132860463786869332 67:1 3336:1 3746:1 4081:1 7338:1 8790:1 8985:1 10001:1 13864:1 15209:1 18552:1 18963:1 20579:1 22613:1 23441:1 25221:1 25805:1 26191:1 27394:1 28762:1 #
0.017262659506955706223418900435718 3340:1 8598:1 10038:1 11161:1 13215:1 13420:1 15864:1 18049:1 20109:1 22269:1 23187:1 25808:1 25874:1 26191:1 28236:1 28631:1 #
-0.01463307814407511890653079689173 3336:1 3563:1 6637:1 6716:1 12978:1 13864:1 15201:1 16956:1 19857:1 23187:1 23712:1 24908:1 26191:1 26848:1 27769:1 #
-0.049118272165661468198205596991102 3336:1 6466:1 6855:1 7457:1 7559:1 10997:1 11417:1 13957:1 14068:1 14182:1 15716:1 16099:1 16606:1 18177:1 18698:1 19285:1 19986:1 20539:1 22085:1 25719:1 26207:1 26943:1 28400:1 #
-0.031520333193130203874865458146814 5708:1 6299:1 9996:1 11405:1 11959:1 14649:1 15234:1 19307:1 19857:1 21250:1 23187:1 26191:1 #
0.034852038479035021834029350884521 6299:1 8093:1 9050:1 11956:1 13864:1 14008:1 16568:1 16593:1 16909:1 17386:1 18423:1 19986:1 20225:1 21360:1 23096:1 23623:1 23656:1 25567:1 26171:1 26191:1 28468:1 #
0.068049695903619894510327981151931 6782:1 6993:1 9819:1 11161:1 11219:1 13864:1 15747:1 19417:1 19514:1 19649:1 19857:1 21371:1 24904:1 26191:1 26417:1 26481:1 26550:1 27942:1 27950:1 28317:1 28750:1 28752:1 #
-0.0063645752211304819009884958802559 6299:1 6637:1 7252:1 9685:1 9883:1 10589:1 12527:1 14621:1 17926:1 19470:1 19857:1 23187:1 25403:1 25805:1 26185:1 28292:1 28354:1 28497:1 #
0.045928221761177306925461039099901 6299:1 7945:1 10997:1 15234:1 15864:1 18837:1 19923:1 21104:1 21663:1 22220:1 22249:1 22908:1 23187:1 23266:1 26185:1 28752:1 #
0.033586055580079543503302375029307 6299:1 6353:1 6993:1 7060:1 7664:1 7911:1 8093:1 11930:1 12010:1 15864:1 16568:1 17939:1 18049:1 19268:1 19857:1 20059:1 21222:1 21559:1 23096:1 25875:1 26171:1 26262:1 28276:1 #
0.01932261557288831102519033322551 6353:1 7068:1 8738:1 11930:1 14116:1 15217:1 15265:1 15395:1 15864:1 16988:1 18312:1 19843:1 19986:1 22309:1 22795:1 23096:1 23187:1 23266:1 26191:1 27041:1 27394:1 28120:1 #
0.028048141029152044018113443257789 934:1 6299:1 6871:1 9138:1 10953:1 13864:1 14169:1 14302:1 14861:1 15265:1 15864:1 16099:1 16568:1 17622:1 17714:1 20275:1 20714:1 23096:1 23187:1 23446:1 23754:1 26191:1 26481:1 27901:1 #
0.055960396484809354911149625877442 8252:1 8370:1 11930:1 13864:1 14102:1 14616:1 14894:1 15864:1 16568:1 18049:1 19268:1 19857:1 21559:1 23096:1 23187:1 26191:1 27005:1 27779:1 #
0.045249864162024637515013836264188 6299:1 7107:1 8016:1 11161:1 14422:1 15209:1 15265:1 15478:1 16099:1 16909:1 19986:1 23096:1 23187:1 23948:1 24822:1 24907:1 25805:1 25875:1 26262:1 27394:1 27768:1 28208:1 28276:1 #
0.033501986233800976067165322547226 5839:1 6299:1 7422:1 7664:1 8005:1 8985:1 10997:1 12206:1 12669:1 12981:1 13864:1 15864:1 15897:1 19268:1 19857:1 21802:1 24017:1 25221:1 25854:1 26143:1 26405:1 26540:1 27394:1 #
0.01530224499468570836802072676619 978:1 1319:1 3340:1 11161:1 14661:1 19268:1 21566:1 22269:1 24507:1 26191:1 26481:1 27942:1 #
-0.014321637583374072916209129857634 6970:1 7321:1 15265:1 15354:1 15918:1 17736:1 17897:1 19649:1 19768:1 19857:1 22937:1 28000:1 #
-0.036921136551887737131671940460365 6299:1 11956:1 17622:1 17897:1 19019:1 19768:1 19857:1 21559:1 22937:1 23096:1 23187:1 26171:1 #
0.023425737196578901022636642892394 6811:1 6993:1 13658:1 16582:1 16593:1 19417:1 20653:1 22249:1 22937:1 23096:1 23446:1 25805:1 25863:1 26191:1 26481:1 27996:1 28120:1 28354:1 28461:1 #
0.04222189300506364734166808716509 5839:1 6299:1 8173:1 10730:1 11161:1 11909:1 12376:1 14692:1 15929:1 16802:1 18180:1 19986:1 20225:1 21317:1 23096:1 23446:1 #
-0.013554083057211167850919508737206 5849:1 6459:1 7457:1 9138:1 15265:1 16099:1 17566:1 19857:1 21559:1 23306:1 25805:1 26208:1 26297:1 28358:1 #
-0.050227279322588788690318040153215 6811:1 9138:1 14422:1 15030:1 15201:1 16568:1 16909:1 19857:1 21267:1 23096:1 23306:1 23438:1 23660:1 23948:1 24251:1 25805:1 26188:1 26481:1 26557:1 27776:1 28752:1 #
-0.030012447605879819662044738493023 782:1 5739:1 6018:1 11161:1 11930:1 13637:1 19459:1 19857:1 21271:1 21566:1 22810:1 23096:1 23187:1 23266:1 26247:1 26550:1 28199:1 28396:1 28752:1 #
0.058679419880411864962610479778959 3340:1 9789:1 11161:1 13051:1 14422:1 19986:1 20312:1 26191:1 26481:1 27942:1 #
0.056710739802030368794660830644716 6299:1 6943:1 7911:1 7949:1 9031:1 10356:1 15929:1 16807:1 17939:1 19986:1 20177:1 21559:1 23096:1 26199:1 28276:1 #
-0.050536716009828348827870314607935 6299:1 7338:1 8093:1 8199:1 9883:1 11042:1 11999:1 15716:1 17622:1 18064:1 18663:1 19019:1 23096:1 23187:1 23266:1 23498:1 24739:1 24834:1 25425:1 25805:1 #
-0.05067604919678263958315866943849 978:1 6037:1 7422:1 8969:1 11668:1 13864:1 15265:1 15369:1 17151:1 17304:1 19857:1 21249:1 23096:1 23266:1 24416:1 25861:1 26191:1 26481:1 27441:1 28120:1 28680:1 #
-0.024642173525430400432556510281756 5875:1 6993:1 7044:1 7321:1 11112:1 15503:1 16568:1 19268:1 19857:1 20579:1 23187:1 23266:1 23347:1 26191:1 28258:1 #
0.064210263074942888761320602952765 6809:1 6957:1 9337:1 14596:1 14661:1 14748:1 14786:1 15864:1 18479:1 19417:1 19649:1 19733:1 19857:1 20109:1 22249:1 23948:1 24692:1 25221:1 26228:1 26405:1 #
-0.016275619797681294131930229696081 6957:1 7422:1 7965:1 9138:1 14786:1 16470:1 19857:1 22053:1 23096:1 23187:1 24169:1 25854:1 26202:1 26228:1 26681:1 27563:1 28495:1 #
-0.014519453983462396462478238845506 2483:1 7422:1 7945:1 11956:1 12580:1 12987:1 17851:1 19857:1 20122:1 20814:1 23187:1 25618:1 26191:1 28199:1 #
0.031813786737455426734122454490716 7422:1 7615:1 8985:1 11647:1 11930:1 12176:1 13445:1 14422:1 15283:1 17523:1 18423:1 18837:1 19733:1 19823:1 20054:1 20814:1 23187:1 23446:1 24110:1 25106:1 26262:1 28147:1 28465:1 #
-0.033756449704362333219531677741543 6262:1 7068:1 9996:1 12240:1 12589:1 14067:1 15234:1 15265:1 16593:1 17468:1 17622:1 18377:1 19857:1 20109:1 23266:1 26191:1 26262:1 26405:1 28752:1 28762:1 #
-0.021100074499580900866391175441095 4733:1 6993:1 7855:1 11629:1 14067:1 16568:1 19857:1 19986:1 21004:1 21500:1 21818:1 23592:1 28752:1 #
-0.028078576982873953288288859653221 1030:1 6262:1 8985:1 9852:1 16099:1 16205:1 16984:1 18682:1 19733:1 19857:1 20109:1 20653:1 23574:1 25160:1 26185:1 26191:1 27448:1 27892:1 #
0.069983431065960027828154466078558 2:1 3336:1 5672:1 7116:1 11161:1 12165:1 13929:1 14271:1 17894:1 23266:1 24576:1 26191:1 26481:1 26550:1 28120:1 #
-0.048158295323914988850244611739981 11999:1 16780:1 16909:1 17654:1 17933:1 18373:1 19103:1 19604:1 19857:1 19986:1 20109:1 20981:1 23096:1 23187:1 25805:1 26191:1 26481:1 27895:1 28318:1 28752:1 #
0.061776860034319432124494397839953 4769:1 6299:1 11627:1 14499:1 14563:1 15265:1 15929:1 16152:1 16807:1 16988:1 19857:1 21104:1 22249:1 22846:1 23096:1 23347:1 23441:1 25221:1 25805:1 26191:1 26244:1 26481:1 27448:1 28752:1 #
0.038285326649523637732031033920066 978:1 984:1 1030:1 3094:1 3336:1 13622:1 14621:1 16987:1 19121:1 19876:1 20109:1 21559:1 23768:1 25413:1 26191:1 26550:1 27394:1 #
-0.020973574908195860566628709875658 7911:1 11623:1 11643:1 13106:1 14067:1 19364:1 19857:1 24026:1 24666:1 28752:1 #
-0.0068961698249777100139246144294702 549:1 5850:1 6299:1 7945:1 13864:1 15716:1 15921:1 16099:1 16568:1 19768:1 19857:1 19986:1 23266:1 25106:1 26185:1 26228:1 27703:1 27769:1 28092:1 28461:1 #
-0.0093507168563545847023155133115324 5703:1 6519:1 7788:1 9450:1 11123:1 14422:1 14678:1 15265:1 15514:1 16099:1 17819:1 19055:1 19857:1 19986:1 22920:1 23306:1 26700:1 28495:1 #
-0.046984742908098321712007106043529 1443:1 6299:1 11161:1 13613:1 19857:1 23187:1 24834:1 25278:1 25425:1 26191:1 28354:1 #
0.052712515650315379389656555986221 978:1 6993:1 9219:1 10570:1 12081:1 13864:1 15281:1 15286:1 16568:1 16987:1 17140:1 18113:1 19733:1 20814:1 23096:1 23187:1 25935:1 26191:1 26254:1 28752:1 #
-0.011572429205515009920102187379598 1101:1 6957:1 7160:1 11161:1 13558:1 13811:1 14563:1 14870:1 16099:1 16139:1 16210:1 19857:1 21450:1 23266:1 23540:1 28000:1 28077:1 #
-0.022881039109943799442214995565337 1030:1 6299:1 6667:1 6957:1 7422:1 8128:1 8985:1 11602:1 15201:1 16099:1 16811:1 17894:1 19857:1 19980:1 20368:1 22303:1 23096:1 25960:1 26185:1 26600:1 28063:1 #
-0.049914249415905748152866294731211 6299:1 6766:1 8718:1 8985:1 11023:1 13864:1 14169:1 15808:1 16956:1 19733:1 19771:1 19857:1 23266:1 26481:1 27769:1 #
0.01618709706011219051635663390698 6353:1 6811:1 7422:1 8985:1 11627:1 12506:1 13637:1 14431:1 15611:1 15864:1 17622:1 17851:1 18425:1 18837:1 19986:1 20575:1 21111:1 22920:1 23266:1 25805:1 25871:1 26202:1 28354:1 #
-0.06907759800999245525243708243579 5671:1 6299:1 7976:1 11161:1 14797:1 15503:1 15923:1 16099:1 18837:1 18949:1 19481:1 20109:1 21635:1 23096:1 23129:1 23187:1 26191:1 27938:1 28258:1 28834:1 #
0.064263548236541886971018300300784 1030:1 10968:1 15478:1 15681:1 16568:1 16909:1 17622:1 19990:1 23096:1 23205:1 24576:1 26185:1 26191:1 26481:1 #
0.071167226238501760104959714681172 6993:1 7911:1 11161:1 12766:1 14563:1 15989:1 16593:1 17738:1 21566:1 21597:1 25245:1 25638:1 26550:1 #
-0.027112890106317788507794830366038 6299:1 6876:1 6993:1 12971:1 14786:1 16568:1 17000:1 19857:1 20115:1 20845:1 20969:1 25113:1 28354:1 #
-0.030767334737661026361488225688845 6299:1 6934:1 6993:1 7086:1 7233:1 8093:1 12525:1 15265:1 15644:1 15918:1 16568:1 19733:1 19857:1 21678:1 22249:1 23187:1 28752:1 28762:1 #
0.033577884132090479729626508742513 7321:1 8985:1 10611:1 10997:1 11030:1 12506:1 15234:1 15478:1 15864:1 16582:1 18049:1 19121:1 19268:1 19857:1 20845:1 22220:1 23236:1 23438:1 25638:1 25805:1 26171:1 28752:1 #
0.047896649765264164011480119143016 3113:1 5972:1 6811:1 6896:1 7422:1 8252:1 11999:1 13864:1 15864:1 17414:1 19857:1 20312:1 22618:1 23187:1 23631:1 25805:1 25875:1 26191:1 26405:1 28101:1 28164:1 28478:1 28752:1 #
0.0097510469491800099567369031205999 6299:1 7352:1 10448:1 13488:1 13864:1 14767:1 15234:1 15716:1 15864:1 16405:1 16568:1 16909:1 17304:1 17622:1 19733:1 19986:1 20189:1 23096:1 25437:1 26185:1 26481:1 26963:1 27205:1 28762:1 #
-0.032173474614263695980920232386779 7451:1 8621:1 9883:1 17851:1 19138:1 19556:1 19857:1 21597:1 23096:1 25110:1 25586:1 27394:1 #
-0.048922327488104856707540335492013 1869:1 4733:1 7422:1 7911:1 7945:1 9819:1 13267:1 17512:1 17622:1 18423:1 19857:1 26185:1 26700:1 28752:1 #
0.010347147975174636469475331068679 978:1 3340:1 6281:1 7422:1 7911:1 12936:1 14621:1 15929:1 17997:1 19121:1 21559:1 21566:1 22846:1 23187:1 26191:1 27950:1 28276:1 28752:1 #
-0.022165926142709551499576647870526 2:1 3340:1 6933:1 17622:1 17959:1 17964:1 19572:1 19857:1 20052:1 23187:1 #
0.054327630122718566230144432438465 1099:1 8610:1 8985:1 15234:1 15864:1 19510:1 20633:1 20636:1 23096:1 23187:1 24026:1 24175:1 28495:1 28752:1 #
-0.0025596226296957973536660979618773 5857:1 6299:1 7788:1 8236:1 13864:1 14032:1 15489:1 16099:1 16568:1 17648:1 19019:1 19857:1 20122:1 23187:1 24359:1 25947:1 26171:1 27779:1 #
-0.031757827163584745333579917314637 2040:1 6353:1 6379:1 6993:1 12496:1 16059:1 17414:1 17806:1 19055:1 19857:1 19986:1 20115:1 22478:1 23187:1 25403:1 25872:1 26191:1 26244:1 #
-0.0061819907402549233860211685964714 6576:1 8189:1 9404:1 13907:1 14894:1 19488:1 19857:1 23187:1 23515:1 27646:1 28034:1 #
0.058173233509565901167004398075733 6299:1 8951:1 11999:1 14779:1 15864:1 17552:1 17622:1 17888:1 18837:1 19586:1 23079:1 23187:1 24117:1 25805:1 26844:1 28354:1 #
-0.051672782848094761520840734192461 6993:1 7911:1 8768:1 11161:1 12290:1 13268:1 13831:1 13864:1 15503:1 15560:1 17714:1 19857:1 21766:1 22387:1 22790:1 23187:1 26191:1 26550:1 27448:1 27996:1 28276:1 #
0.012859846918359729706082816846902 8650:1 10953:1 15864:1 15929:1 17738:1 20714:1 23096:1 26608:1 28752:1 #
0.011457285014665460898264370825927 6970:1 8985:1 11161:1 13051:1 14422:1 15918:1 16568:1 18731:1 18837:1 19510:1 19733:1 20028:1 21259:1 22303:1 23096:1 23187:1 26185:1 26191:1 26481:1 26550:1 26557:1 27811:1 27942:1 #
0.025523184979354733570300339806636 6353:1 6993:1 9219:1 10158:1 11731:1 15283:1 15864:1 16254:1 16568:1 18777:1 18956:1 19055:1 23096:1 26185:1 28151:1 28461:1 #
-0.020441005364722417136924548231036 9101:1 11147:1 12290:1 16984:1 17585:1 17926:1 18423:1 19857:1 21153:1 23266:1 26550:1 #
-0.036569689214872976024128803373969 3713:1 8128:1 11623:1 11930:1 15929:1 15999:1 16909:1 19857:1 23096:1 23187:1 23263:1 26262:1 28077:1 28120:1 28276:1 28354:1 #
-0.023347769574409288351191094079695 6299:1 6993:1 11623:1 13022:1 13864:1 15511:1 15705:1 16099:1 19857:1 22716:1 25266:1 26191:1 27769:1 28086:1 28120:1 #
0.025431320642633807593835371108071 6811:1 8803:1 10575:1 13539:1 15864:1 15929:1 16099:1 17738:1 19153:1 23096:1 23187:1 23648:1 26191:1 28322:1 28611:1 #
-0.0089558219336322228421032320966333 6993:1 8074:1 19733:1 19857:1 20109:1 21222:1 23096:1 23266:1 23855:1 26262:1 27925:1 #
-0.026734822563759676194994341358324 6299:1 6348:1 7628:1 8950:1 9094:1 10048:1 11161:1 12179:1 13671:1 16099:1 16575:1 19857:1 20130:1 21447:1 24195:1 25023:1 26191:1 26481:1 27448:1 27465:1 28164:1 28354:1 #
-0.035995882194504356943465239737634 5973:1 6173:1 6353:1 6993:1 7976:1 9227:1 12623:1 14067:1 14297:1 19424:1 19768:1 20109:1 21271:1 21687:1 23096:1 23187:1 23438:1 24059:1 26199:1 27394:1 #
-0.043781823489552729178342360683018 6474:1 6993:1 7548:1 16568:1 19056:1 19857:1 23096:1 24819:1 25652:1 #
0.0024442081146643971321930077778006 1312:1 6896:1 11161:1 15864:1 19733:1 20115:1 20122:1 26191:1 27950:1 #
-0.00076054922609631453456202621055127 6299:1 7321:1 8199:1 10038:1 16568:1 17637:1 18837:1 19424:1 19768:1 19857:1 19986:1 22085:1 22937:1 23096:1 23187:1 23266:1 23841:1 25371:1 26273:1 26481:1 #
