SVM-light Version V6.02
0 # kernel type
3 # kernel parameter -d 
1 # kernel parameter -g 
1 # kernel parameter -s 
1 # kernel parameter -r 
empty# kernel parameter -u 
28846 # highest feature index 
800 # number of training documents 
106 # number of support vectors plus 1 
-0.29894887 # threshold b, each following line is a SV (starting with alpha*y)
-0.01381861542085492493281417836215 6993:1 7321:1 15265:1 16099:1 17647:1 19857:1 20637:1 23187:1 23266:1 26191:1 26219:1 27711:1 #
-0.04699516890437155369752986189269 6353:1 6811:1 7422:1 8985:1 11627:1 12506:1 13637:1 14431:1 15611:1 15864:1 17622:1 17851:1 18425:1 18837:1 19986:1 20575:1 21111:1 22920:1 23266:1 25805:1 25871:1 26202:1 28354:1 #
-0.030706176898288514709456364926154 1030:1 6993:1 11782:1 12410:1 13864:1 15582:1 15646:1 16807:1 20109:1 22280:1 24655:1 26191:1 26481:1 27942:1 #
-0.014106857798225430622451881390589 5686:1 5709:1 6353:1 7073:1 7321:1 8563:1 9819:1 13864:1 14499:1 15478:1 15864:1 15929:1 16568:1 16593:1 17658:1 19857:1 20028:1 20115:1 20307:1 23446:1 26185:1 26405:1 26550:1 27925:1 28077:1 28276:1 #
0.026272546185002628588156525779596 934:1 5788:1 8969:1 9533:1 9874:1 10953:1 13864:1 15201:1 17304:1 19056:1 19857:1 21597:1 23187:1 24416:1 25960:1 26405:1 26417:1 26827:1 27996:1 #
0.030124172363713851846567237657837 6871:1 7911:1 14108:1 14611:1 15864:1 15929:1 16568:1 16606:1 16909:1 19019:1 21559:1 23096:1 23948:1 26171:1 26247:1 26262:1 27394:1 28468:1 #
0.044375837288387363910313609949299 6970:1 8985:1 11161:1 13051:1 14422:1 15918:1 16568:1 18731:1 18837:1 19510:1 19733:1 20028:1 21259:1 22303:1 23096:1 23187:1 26185:1 26191:1 26481:1 26550:1 26557:1 27811:1 27942:1 #
0.041230711207211619140355907120465 6957:1 9823:1 10347:1 11957:1 13864:1 15234:1 15265:1 16438:1 20005:1 20362:1 20368:1 21559:1 22937:1 23096:1 23266:1 24059:1 25805:1 25875:1 26185:1 26191:1 #
-0.00065043847301216733969297933981579 6993:1 7321:1 15265:1 16099:1 17647:1 19857:1 20637:1 23187:1 23266:1 26191:1 26219:1 27711:1 #
-0.023642257846815801364259712613602 919:1 7298:1 7422:1 9136:1 11417:1 15094:1 15201:1 16909:1 19857:1 19986:1 20109:1 21559:1 23187:1 23266:1 26191:1 27041:1 #
0.058359864476011581724268495463548 6993:1 7422:1 7805:1 9117:1 11957:1 12971:1 14422:1 15265:1 16568:1 17888:1 17897:1 19857:1 19990:1 23096:1 25805:1 26191:1 26481:1 26575:1 26865:1 #
0.034914621690184333147044526413083 6811:1 13224:1 13428:1 14115:1 14826:1 15089:1 16568:1 17888:1 18837:1 20109:1 23187:1 23266:1 24464:1 26185:1 28120:1 28550:1 #
0.02643553682824631087533440165771 7233:1 9725:1 11930:1 13022:1 14422:1 14596:1 16099:1 21113:1 22249:1 23096:1 23187:1 25221:1 25880:1 26481:1 27850:1 27996:1 28120:1 28752:1 28762:1 #
0.05109012110457788330419859335052 3563:1 5699:1 6637:1 8718:1 9029:1 11023:1 14169:1 15808:1 16099:1 16956:1 19514:1 19857:1 20269:1 23187:1 27769:1 #
0.05457414214794356621673898644076 3336:1 6466:1 6855:1 7457:1 7559:1 10997:1 11417:1 13957:1 14068:1 14182:1 15716:1 16099:1 16606:1 18177:1 18698:1 19285:1 19986:1 20539:1 22085:1 25719:1 26207:1 26943:1 28400:1 #
-0.052231971677472614767889780296173 6849:1 7642:1 7788:1 9029:1 14426:1 15825:1 16840:1 17080:1 19221:1 19857:1 19986:1 22269:1 23187:1 23266:1 26481:1 27041:1 #
-0.045382566732965590183823678671615 6772:1 8406:1 11161:1 12323:1 19857:1 20109:1 21104:1 23096:1 23266:1 24558:1 25789:1 26191:1 26550:1 27394:1 28164:1 28354:1 #
0.020388640321090448909169268176811 5973:1 6173:1 6353:1 6993:1 7976:1 9227:1 12623:1 14067:1 14297:1 19424:1 19768:1 20109:1 21271:1 21687:1 23096:1 23187:1 23438:1 24059:1 26199:1 27394:1 #
-0.01911121767050091152517765635821 44:1 7656:1 14431:1 15503:1 15715:1 15929:1 16099:1 17691:1 19857:1 20109:1 21849:1 23187:1 24666:1 26191:1 26481:1 28397:1 28846:1 #
-0.012148378839467790027417670728482 6933:1 6970:1 9913:1 11161:1 11930:1 12987:1 13102:1 14149:1 15143:1 15234:1 16099:1 16481:1 16593:1 16862:1 19604:1 19857:1 22967:1 23266:1 24679:1 26481:1 28279:1 #
0.029157365855609285870686520070194 6299:1 7148:1 13864:1 19268:1 19604:1 19733:1 19857:1 20853:1 23096:1 23306:1 25370:1 #
-0.070505537026095230213051934242685 7664:1 11999:1 13458:1 13864:1 15023:1 15716:1 15864:1 15929:1 16568:1 18727:1 19567:1 19857:1 19986:1 22280:1 22294:1 23187:1 23969:1 25805:1 26185:1 26285:1 28752:1 #
0.024819800232044400556397079071758 6811:1 13224:1 13428:1 14115:1 14826:1 15089:1 16568:1 17888:1 18837:1 20109:1 23187:1 23266:1 24464:1 26185:1 28120:1 28550:1 #
-0.020928017888530582590878026394421 6299:1 8136:1 8985:1 9138:1 10264:1 11138:1 13864:1 14499:1 15124:1 15265:1 15478:1 15864:1 16568:1 16593:1 17926:1 18049:1 19424:1 19857:1 21449:1 21559:1 25327:1 26191:1 26550:1 #
-0.061107455844980222703366479208853 6299:1 7965:1 8985:1 12938:1 13585:1 13587:1 13734:1 13764:1 15265:1 17622:1 18837:1 18907:1 22249:1 23187:1 23266:1 23992:1 24251:1 25855:1 26191:1 #
-0.020472624544818802949652791767221 6299:1 8922:1 9671:1 11930:1 12866:1 14422:1 15217:1 15287:1 16099:1 17622:1 18038:1 18049:1 18626:1 19857:1 19986:1 22908:1 26191:1 27449:1 28147:1 28199:1 28752:1 28762:1 #
-0.024948549393248094230290945461093 6993:1 7911:1 9138:1 9789:1 12572:1 13814:1 15234:1 18663:1 19857:1 19986:1 20109:1 20122:1 20164:1 20225:1 21309:1 21559:1 23872:1 24026:1 26059:1 26185:1 26191:1 26228:1 28012:1 #
-0.034114963363473423119121008539878 6299:1 7738:1 11271:1 11627:1 11999:1 14603:1 15234:1 15265:1 15515:1 16099:1 17939:1 19857:1 19986:1 20054:1 21515:1 23187:1 23266:1 25805:1 26185:1 26207:1 26285:1 26405:1 26481:1 27236:1 27925:1 #
0.072989178898748993673528673298279 8090:1 10898:1 14741:1 14945:1 16909:1 17783:1 18646:1 19268:1 19857:1 20312:1 23306:1 23872:1 27942:1 #
-0.040823080069607782516261096361632 978:1 3336:1 7233:1 7854:1 9138:1 10038:1 10691:1 13195:1 13371:1 13831:1 14596:1 16568:1 19268:1 19307:1 20109:1 22488:1 24576:1 25805:1 26191:1 26202:1 26481:1 26967:1 27005:1 #
0.04773259819245726648384575696582 6630:1 6811:1 9138:1 13637:1 15503:1 15864:1 17622:1 17894:1 23096:1 23648:1 23948:1 25805:1 26115:1 26262:1 26481:1 27846:1 27895:1 28120:1 28292:1 28611:1 #
-0.070728291444726393288888743882126 8598:1 9219:1 11930:1 11957:1 11999:1 12529:1 15864:1 16606:1 17129:1 17622:1 18359:1 19857:1 20225:1 20814:1 20981:1 22817:1 23096:1 25805:1 26191:1 27448:1 27996:1 28159:1 28199:1 28238:1 28322:1 #
-0.012585287906154252884904920506415 6100:1 6993:1 8056:1 12019:1 14008:1 14422:1 14502:1 15929:1 19649:1 19857:1 19986:1 20814:1 20896:1 24478:1 24479:1 26191:1 28199:1 #
0.025611732467120305878349739714395 4084:1 4150:1 6299:1 7932:1 8811:1 9029:1 10327:1 10769:1 14431:1 15217:1 16568:1 19857:1 23096:1 26262:1 #
-0.059319008559372450595237324932896 6299:1 6993:1 8766:1 9450:1 10038:1 11161:1 13864:1 15503:1 16099:1 19316:1 19843:1 19857:1 20312:1 23187:1 24026:1 26191:1 26481:1 28523:1 #
-0.0042644373204072955757526486308961 1099:1 6811:1 6934:1 6993:1 7116:1 12891:1 14067:1 15864:1 15904:1 15941:1 19857:1 19986:1 20814:1 23187:1 25854:1 26191:1 26202:1 26285:1 28276:1 #
-0.0084437555629759790398747298922899 5839:1 5948:1 6299:1 6993:1 7615:1 7911:1 10944:1 12580:1 13864:1 16568:1 16907:1 17622:1 18049:1 19733:1 19843:1 19857:1 20109:1 20307:1 20497:1 21491:1 24834:1 26191:1 26481:1 26943:1 27394:1 27901:1 27996:1 28199:1 #
-0.06435442039425590121659581654967 224:1 5953:1 6299:1 6957:1 11038:1 11485:1 15201:1 15265:1 17388:1 19857:1 21615:1 23071:1 23646:1 24048:1 25620:1 26115:1 26481:1 26550:1 27714:1 #
0.066543665915857072579164821490849 8985:1 11628:1 14422:1 15265:1 19986:1 20714:1 22920:1 23096:1 23438:1 26481:1 27901:1 #
0.051288887226295210020055037603015 3336:1 6636:1 7945:1 9138:1 12352:1 13864:1 15201:1 15265:1 15864:1 16984:1 18049:1 18136:1 19268:1 19857:1 21766:1 26185:1 26844:1 27779:1 #
0.052075713665232815918759712303654 978:1 6037:1 7422:1 8969:1 11668:1 13864:1 15265:1 15369:1 17151:1 17304:1 19857:1 21249:1 23096:1 23266:1 24416:1 25861:1 26191:1 26481:1 27441:1 28120:1 28680:1 #
0.059373226102599027664830089179304 6811:1 7422:1 9180:1 12971:1 13864:1 15622:1 17738:1 17851:1 19857:1 22227:1 22260:1 23187:1 26191:1 27779:1 28612:1 #
-0.044535619352177653607061103002707 6993:1 7422:1 7788:1 7965:1 8136:1 14170:1 15201:1 15287:1 15736:1 16516:1 18382:1 19733:1 19857:1 23187:1 23266:1 26191:1 26481:1 27996:1 #
-0.043621563989002840044939546260139 5709:1 6630:1 7976:1 11114:1 11981:1 13444:1 15265:1 16956:1 19514:1 19649:1 19857:1 20109:1 20269:1 22104:1 23187:1 23266:1 23716:1 24834:1 26481:1 27769:1 #
-0.0051882922376035702297092377932586 6299:1 6636:1 8984:1 9913:1 10611:1 10634:1 11161:1 13250:1 13864:1 15265:1 17140:1 17622:1 19424:1 19857:1 20112:1 21515:1 21832:1 23236:1 23266:1 26191:1 26481:1 26557:1 26865:1 #
0.061642394410201584165065469278488 3336:1 3563:1 6637:1 6716:1 12978:1 13864:1 15201:1 16956:1 19857:1 23187:1 23712:1 24908:1 26191:1 26848:1 27769:1 #
-0.030654812524564530734627609831477 6658:1 6993:1 7044:1 7788:1 8074:1 14047:1 15161:1 15864:1 17588:1 17958:1 18276:1 18646:1 19268:1 19857:1 19986:1 23187:1 26191:1 26495:1 26978:1 28680:1 #
-0.018081393009294947915588380737972 6811:1 6858:1 7233:1 11161:1 12525:1 14422:1 15644:1 15864:1 19857:1 22249:1 22516:1 23187:1 25805:1 26191:1 26481:1 27768:1 27950:1 28396:1 28633:1 #
-0.027546967016933307514925388659321 7233:1 14758:1 15395:1 15498:1 16807:1 19514:1 19857:1 19990:1 20755:1 20814:1 23187:1 23266:1 24263:1 24655:1 26191:1 26481:1 #
-0.044340768642460857973386367802959 6299:1 6871:1 6957:1 7321:1 10583:1 11204:1 11555:1 14567:1 15265:1 15864:1 17304:1 17557:1 18301:1 19604:1 19857:1 23306:1 23438:1 23573:1 25221:1 26228:1 26550:1 27563:1 28020:1 28396:1 28495:1 #
0.031793882356031519242911542733054 1990:1 14964:1 17512:1 17637:1 23096:1 23187:1 26191:1 26467:1 28503:1 #
0.050992198245873067430355973783662 6957:1 7233:1 7788:1 8780:1 9029:1 13864:1 15369:1 16099:1 17130:1 18109:1 19857:1 20069:1 25621:1 26059:1 27178:1 27768:1 27775:1 27779:1 27996:1 28238:1 #
-0.024436558109562047519380811877454 5839:1 6993:1 7288:1 7465:1 9450:1 11161:1 13964:1 15265:1 15864:1 16099:1 16568:1 19424:1 19809:1 19857:1 21249:1 24655:1 26115:1 26185:1 26262:1 26481:1 26918:1 27205:1 #
-0.027377819336968617358607502865198 9219:1 12506:1 16568:1 19857:1 20225:1 21559:1 22161:1 25221:1 26191:1 27980:1 28086:1 28199:1 #
-0.045063684481077885546351780021723 6571:1 7976:1 8128:1 11161:1 14067:1 16811:1 19857:1 20115:1 20119:1 20312:1 23187:1 23194:1 26191:1 26481:1 #
0.017466182201324547546006371590011 6299:1 6614:1 7107:1 9138:1 15234:1 15265:1 17140:1 18837:1 21104:1 21663:1 22220:1 23187:1 24183:1 27901:1 27996:1 28495:1 #
-0.025254898565792160969323276731302 6299:1 6993:1 9919:1 11169:1 11203:1 11623:1 12529:1 15478:1 17224:1 17512:1 19121:1 19733:1 19986:1 20109:1 20238:1 21422:1 21559:1 23096:1 25223:1 26191:1 27768:1 27925:1 28077:1 #
0.01266675543463336404970132065273 6340:1 7911:1 8985:1 16421:1 16568:1 16909:1 18837:1 19510:1 20115:1 23096:1 23187:1 24713:1 26185:1 26191:1 26240:1 26262:1 26481:1 27356:1 28276:1 #
0.0063905181751825702526903505429345 6395:1 6858:1 6993:1 8370:1 8792:1 9138:1 12971:1 14797:1 15221:1 15265:1 15989:1 17512:1 18837:1 19733:1 21422:1 22407:1 23187:1 23771:1 25323:1 25652:1 25805:1 26185:1 28697:1 #
-0.030600872423615487621928465955534 7338:1 8074:1 8985:1 9029:1 11938:1 12997:1 14621:1 16909:1 17512:1 17712:1 19857:1 20109:1 20693:1 20853:1 21835:1 23187:1 23266:1 24739:1 26219:1 26481:1 27980:1 #
0.033619611935587698225980091137899 978:1 10436:1 14271:1 16568:1 19019:1 19857:1 23096:1 23187:1 25172:1 26191:1 27058:1 27394:1 28337:1 28495:1 #
0.073547621064938617507777962600812 1030:1 6299:1 6957:1 7422:1 8171:1 8354:1 15560:1 17234:1 19424:1 19857:1 20312:1 23187:1 23266:1 23438:1 23945:1 24281:1 24658:1 25034:1 25805:1 26191:1 26481:1 27811:1 27864:1 27895:1 #
0.074937697831056665487281520654506 6340:1 7911:1 11627:1 13946:1 15234:1 15265:1 16909:1 16988:1 19857:1 23187:1 23438:1 23441:1 24026:1 25805:1 26481:1 27996:1 28680:1 #
-0.022339521146376755539320058119301 6993:1 7321:1 15265:1 16099:1 17647:1 19857:1 20637:1 23187:1 23266:1 26191:1 26219:1 27711:1 #
-0.06059503461620863867809205771664 978:1 5577:1 7233:1 15265:1 15649:1 18820:1 19649:1 19857:1 22909:1 23306:1 25620:1 26219:1 26550:1 28817:1 #
0.010655780843856698172911201538682 6871:1 11030:1 11999:1 14611:1 15164:1 15322:1 16568:1 16593:1 16909:1 17686:1 17929:1 18168:1 19733:1 23096:1 24694:1 25805:1 26185:1 26481:1 28238:1 28550:1 28752:1 #
0.013035111706466798522918715264041 12971:1 15201:1 15716:1 16568:1 18359:1 18837:1 19138:1 19510:1 19649:1 19857:1 22718:1 22937:1 23096:1 23187:1 25871:1 26481:1 26772:1 27811:1 28454:1 #
0.0062556878474769699038926518142034 5710:1 6896:1 13864:1 15864:1 16593:1 16984:1 17515:1 17851:1 18359:1 19649:1 19857:1 23096:1 23187:1 23446:1 27779:1 28120:1 #
0.045994979335433811007405324744468 6957:1 8168:1 8985:1 9138:1 11930:1 11956:1 15503:1 15864:1 19857:1 22654:1 22671:1 23096:1 23187:1 23266:1 25805:1 26059:1 26185:1 26202:1 28120:1 28276:1 28354:1 28752:1 #
-0.025949527282580701903480502323873 919:1 7298:1 7422:1 9136:1 11417:1 15094:1 15201:1 16909:1 19857:1 19986:1 20109:1 21559:1 23187:1 23266:1 26191:1 27041:1 #
-0.047121426856273407324238178262021 7321:1 8985:1 10611:1 10997:1 11030:1 12506:1 15234:1 15478:1 15864:1 16582:1 18049:1 19121:1 19268:1 19857:1 20845:1 22220:1 23236:1 23438:1 25638:1 25805:1 26171:1 28752:1 #
0.010357829901210514889076108602239 6299:1 6993:1 12010:1 13864:1 15736:1 15864:1 15989:1 16909:1 17681:1 18049:1 18079:1 19733:1 19857:1 22280:1 23096:1 23187:1 27779:1 28238:1 #
-0.030122063977284726371541623279882 6299:1 6993:1 7911:1 10844:1 11161:1 12527:1 12697:1 12970:1 13153:1 16099:1 19876:1 20109:1 21309:1 21879:1 23187:1 26191:1 27905:1 28276:1 #
0.025383470055610837107229471598657 6993:1 10263:1 10622:1 13114:1 13935:1 15265:1 15736:1 17148:1 19268:1 23096:1 23187:1 24052:1 26262:1 26291:1 26550:1 28396:1 #
0.0063830679899109822594827079456081 8025:1 8985:1 15448:1 16984:1 17622:1 22953:1 23096:1 23187:1 23498:1 23872:1 25200:1 25986:1 25989:1 26185:1 26191:1 #
0.036196317704421360206268332149193 1672:1 2449:1 6299:1 9126:1 16850:1 17311:1 18895:1 19522:1 19635:1 20964:1 21267:1 23096:1 26191:1 26848:1 #
0.041933291254413668225353717389225 6299:1 6637:1 7252:1 9685:1 9883:1 10589:1 12527:1 14621:1 17926:1 19470:1 19857:1 23187:1 25403:1 25805:1 26185:1 28292:1 28354:1 28497:1 #
-0.032454227869627649827322102282778 6993:1 7321:1 7637:1 7965:1 7976:1 8199:1 11627:1 12081:1 13637:1 15265:1 15395:1 15702:1 15864:1 15929:1 20115:1 20444:1 22269:1 23096:1 23187:1 23266:1 25805:1 26191:1 26550:1 27925:1 27943:1 28120:1 #
0.069062430255735524076143860838783 6353:1 7233:1 7945:1 15265:1 17622:1 17897:1 19857:1 20312:1 21104:1 21516:1 22616:1 23096:1 23187:1 23266:1 26191:1 26326:1 28299:1 28541:1 #
0.0052829065499426161589546779850934 6299:1 7073:1 7288:1 9180:1 10943:1 12232:1 14499:1 19857:1 23096:1 23440:1 25285:1 28120:1 #
0.064115939047896794433789580125449 3336:1 4081:1 6299:1 6643:1 7086:1 7615:1 9042:1 11759:1 15201:1 15929:1 16606:1 18457:1 19345:1 19986:1 20122:1 22908:1 25624:1 26185:1 26191:1 27775:1 27811:1 #
0.011240659321344352236660135702095 7949:1 12010:1 14198:1 15929:1 16568:1 17988:1 20307:1 21559:1 23096:1 23187:1 #
-0.034338957626618794860551275860416 7233:1 11582:1 13864:1 15716:1 18231:1 19179:1 19857:1 20890:1 22508:1 23266:1 23779:1 26219:1 26481:1 28354:1 #
0.0054252765276290295867744895019769 2798:1 7352:1 8201:1 23096:1 24463:1 27070:1 #
-0.066729184396593380079742985344637 3336:1 7321:1 10367:1 11700:1 18682:1 18738:1 19986:1 20432:1 21371:1 23648:1 24249:1 26262:1 26481:1 28258:1 #
0.037021027397237574185773212320782 6957:1 6993:1 7236:1 8520:1 9138:1 9450:1 13379:1 13487:1 14008:1 15217:1 16909:1 18837:1 20814:1 21309:1 21408:1 21901:1 23185:1 24576:1 25298:1 25805:1 26199:1 26228:1 27394:1 28393:1 #
-0.031783915073386778682440478860372 4769:1 6192:1 6871:1 6957:1 8985:1 11161:1 13599:1 13864:1 16099:1 16406:1 16568:1 18079:1 18731:1 19268:1 19691:1 19766:1 20109:1 24576:1 26191:1 26285:1 27768:1 28276:1 #
0.0059438979522907862268477074962902 1030:1 6299:1 6957:1 7422:1 8171:1 8354:1 15560:1 17234:1 19424:1 19857:1 20312:1 23187:1 23266:1 23438:1 23945:1 24281:1 24658:1 25034:1 25805:1 26191:1 26481:1 27811:1 27864:1 27895:1 #
-0.047925209558277705179651917433148 984:1 6658:1 7965:1 12527:1 14019:1 15014:1 15929:1 18996:1 19025:1 19857:1 21559:1 23187:1 23266:1 26262:1 27394:1 27563:1 27740:1 28495:1 28509:1 #
0.062571441379346046107734480301588 6299:1 9042:1 9450:1 12331:1 12936:1 14230:1 14983:1 19285:1 19857:1 23187:1 27901:1 #
-0.058961764928529267204559971560229 2191:1 3336:1 6896:1 7233:1 7422:1 8688:1 11161:1 13864:1 14507:1 15864:1 16568:1 18423:1 19522:1 24222:1 24691:1 26061:1 26181:1 26185:1 26191:1 28752:1 #
0.0031841994666896274515655029802019 984:1 990:1 1003:1 6970:1 8396:1 9138:1 15234:1 19857:1 23096:1 25805:1 26059:1 26481:1 26737:1 27225:1 27901:1 28120:1 28752:1 #
0.010772761978863752696522482210639 7451:1 8621:1 9883:1 17851:1 19138:1 19556:1 19857:1 21597:1 23096:1 25110:1 25586:1 27394:1 #
-0.048691280770215505935283317739959 8128:1 11999:1 18731:1 19857:1 20109:1 20312:1 21970:1 23187:1 25805:1 26191:1 26219:1 26481:1 27895:1 #
0.028648053671797783781283186499422 5857:1 6299:1 7788:1 8236:1 13864:1 14032:1 15489:1 16099:1 16568:1 17648:1 19019:1 19857:1 20122:1 23187:1 24359:1 25947:1 26171:1 27779:1 #
0.018093304890261268508266923049632 6299:1 6353:1 6474:1 7945:1 14502:1 16909:1 19733:1 19857:1 20814:1 22908:1 23187:1 23948:1 28238:1 #
0.031514555106807708162452996702996 978:1 6993:1 9219:1 10570:1 12081:1 13864:1 15281:1 15286:1 16568:1 16987:1 17140:1 18113:1 19733:1 20814:1 23096:1 23187:1 25935:1 26191:1 26254:1 28752:1 #
0.02009371512147728466857188323047 3094:1 6970:1 7352:1 11999:1 13062:1 15265:1 16564:1 16909:1 17622:1 18423:1 23096:1 23187:1 23266:1 24206:1 24422:1 24497:1 24576:1 24731:1 25805:1 28752:1 #
-0.046705540379459065114531313156476 6299:1 7233:1 7577:1 11623:1 14621:1 15268:1 15613:1 16802:1 17622:1 18837:1 19100:1 19649:1 19768:1 20368:1 22063:1 22649:1 22937:1 23828:1 25519:1 26199:1 27980:1 28164:1 28752:1 #
0.015743762543010096643936179816592 978:1 9851:1 12373:1 14563:1 15503:1 15582:1 16470:1 16909:1 18639:1 19857:1 20312:1 23187:1 23438:1 24026:1 26208:1 27864:1 #
-0.022883059582746705790112784484336 6970:1 7874:1 7911:1 11161:1 14067:1 16407:1 17659:1 17803:1 18028:1 19857:1 21227:1 21559:1 21920:1 22672:1 23266:1 23635:1 24026:1 25875:1 26262:1 27563:1 27996:1 28354:1 #
-0.052755558606071790983538249975027 1030:1 8627:1 10121:1 10896:1 15503:1 17440:1 18837:1 21559:1 22104:1 23564:1 26191:1 26481:1 28147:1 #
-0.022205275878277228734924975128706 978:1 984:1 1099:1 6993:1 7911:1 12525:1 15864:1 15929:1 16593:1 17416:1 17738:1 18049:1 19649:1 19865:1 23096:1 25112:1 26191:1 26219:1 26481:1 28276:1 #
0.018304245857067857894406870400417 6993:1 9138:1 16434:1 16939:1 20109:1 21153:1 23096:1 23187:1 25023:1 27864:1 #
-0.013975059711159677766634246154354 6255:1 6299:1 15201:1 15644:1 15864:1 17667:1 18515:1 19533:1 19857:1 20109:1 26182:1 26191:1 26405:1 #
