SVM-light Version V6.02
0 # kernel type
3 # kernel parameter -d 
1 # kernel parameter -g 
1 # kernel parameter -s 
1 # kernel parameter -r 
empty# kernel parameter -u 
28817 # highest feature index 
300 # number of training documents 
98 # number of support vectors plus 1 
-0.13405396 # threshold b, each following line is a SV (starting with alpha*y)
-0.032120595608375539231627016079074 6299:1 6993:1 12010:1 13864:1 15736:1 15864:1 15989:1 16909:1 17681:1 18049:1 18079:1 19733:1 19857:1 22280:1 23096:1 23187:1 27779:1 28238:1 #
-0.017282494474584825239205088109884 978:1 5577:1 7233:1 15265:1 15649:1 18820:1 19649:1 19857:1 22909:1 23306:1 25620:1 26219:1 26550:1 28817:1 #
-0.016678746613804740911435331440771 8171:1 8481:1 9205:1 15645:1 17234:1 19514:1 19857:1 23446:1 26481:1 27646:1 #
-0.016618250401492215551080278146401 8016:1 8115:1 9051:1 13827:1 16568:1 18457:1 19496:1 19857:1 23187:1 24026:1 26191:1 26550:1 26629:1 27942:1 28199:1 28318:1 #
0.023838326562167271027714576803191 6299:1 6993:1 7965:1 8297:1 12165:1 13487:1 15234:1 22249:1 23096:1 24576:1 25618:1 28752:1 #
0.016871969320810711878699805765791 12010:1 15201:1 17888:1 18423:1 18837:1 23096:1 23187:1 26481:1 28120:1 #
-0.020769897782984523409988142361726 5824:1 10212:1 10721:1 14008:1 16921:1 19857:1 26366:1 #
-0.02309933450695274281816438133319 1725:1 6993:1 8068:1 8136:1 8187:1 12847:1 17140:1 17631:1 18837:1 19857:1 23187:1 27996:1 #
0.022490727138441482524378045582125 453:1 13458:1 15265:1 15864:1 17622:1 20287:1 23096:1 23266:1 25607:1 25880:1 26481:1 #
0.028614195328572056969962389416651 5778:1 5839:1 6159:1 6299:1 8162:1 9029:1 11183:1 12739:1 16099:1 16152:1 16153:1 16191:1 16907:1 18312:1 19986:1 23096:1 23187:1 26191:1 #
-0.065840837600185331268676236504689 6299:1 6474:1 6993:1 8098:1 11641:1 16593:1 17714:1 19857:1 20814:1 23096:1 23266:1 25381:1 25385:1 27942:1 27950:1 27996:1 28765:1 #
-0.03317310759500340100469628623614 978:1 6299:1 6438:1 6993:1 15209:1 15644:1 16568:1 16984:1 17681:1 18423:1 18946:1 19857:1 19986:1 21704:1 22303:1 23266:1 25805:1 26185:1 26219:1 27394:1 28120:1 28276:1 #
0.054390029581255459889543857343597 1847:1 6896:1 6957:1 10058:1 11161:1 12458:1 13864:1 15864:1 16099:1 16568:1 18423:1 19470:1 20312:1 21566:1 21916:1 26191:1 26262:1 27394:1 #
0.045787430608650550589722172389884 5708:1 6299:1 10048:1 11112:1 13864:1 15201:1 15395:1 15652:1 17939:1 19510:1 19986:1 21111:1 23096:1 23187:1 23266:1 25413:1 26185:1 #
0.033967911063311810593301487415374 6099:1 6933:1 6993:1 7233:1 7766:1 10431:1 10737:1 14602:1 16860:1 19025:1 19986:1 23096:1 23266:1 23278:1 25069:1 25563:1 26572:1 #
0.049215075758865814425924156694236 3340:1 10038:1 11161:1 12081:1 14917:1 16568:1 19768:1 20623:1 22937:1 24810:1 26191:1 26481:1 27942:1 28354:1 #
0.055613425695783341717870484899322 8093:1 12506:1 13842:1 13864:1 14102:1 15478:1 15864:1 15929:1 16593:1 18837:1 19733:1 20814:1 23187:1 25055:1 25805:1 26202:1 27931:1 28354:1 28499:1 28541:1 #
0.028549441354766693507150066011491 1030:1 6934:1 7078:1 10038:1 11367:1 11956:1 12081:1 12574:1 15039:1 20109:1 20814:1 23096:1 23187:1 26191:1 28151:1 #
-0.042117986296209081187313927330251 12669:1 13864:1 15864:1 18049:1 19857:1 19986:1 25278:1 #
0.022327932901582494412684454232476 978:1 3336:1 7233:1 7854:1 9138:1 10038:1 10691:1 13195:1 13371:1 13831:1 14596:1 16568:1 19268:1 19307:1 20109:1 22488:1 24576:1 25805:1 26191:1 26202:1 26481:1 26967:1 27005:1 #
-0.012524087276997391757205058127056 6299:1 6353:1 12005:1 15716:1 15864:1 16909:1 18079:1 19857:1 21559:1 23187:1 25618:1 26481:1 26495:1 28752:1 #
-0.0043418781522089732599622990960597 4315:1 4733:1 4992:1 6125:1 6636:1 14497:1 19857:1 20115:1 20225:1 21658:1 22581:1 23187:1 26257:1 26481:1 #
-0.038967704202367260679640281750835 5875:1 6957:1 7044:1 8394:1 11161:1 14621:1 15161:1 17997:1 19121:1 19123:1 19857:1 20109:1 26191:1 26481:1 26495:1 #
0.052801365716777133585413395167052 2:1 3336:1 5672:1 7116:1 11161:1 12165:1 13929:1 14271:1 17894:1 23266:1 24576:1 26191:1 26481:1 26550:1 28120:1 #
-0.015011504392573845126368503599679 1593:1 6673:1 6811:1 6993:1 7911:1 7989:1 8273:1 8985:1 9138:1 12987:1 14563:1 17512:1 17555:1 19103:1 19857:1 20109:1 23187:1 23266:1 24576:1 24593:1 26191:1 26481:1 27996:1 28703:1 #
0.037955301546721963157349222228731 8074:1 8728:1 8985:1 11161:1 13864:1 14563:1 15864:1 17071:1 17882:1 18423:1 19268:1 19649:1 19986:1 20115:1 26185:1 26191:1 26481:1 27014:1 27942:1 28339:1 #
0.025271328723217831996317173093303 6299:1 10080:1 16099:1 17622:1 17897:1 18837:1 19986:1 20886:1 23096:1 23187:1 25076:1 26191:1 26481:1 27029:1 27648:1 #
0.025186461559352495143127015353457 6299:1 6937:1 6993:1 7162:1 7537:1 8396:1 12160:1 14067:1 15265:1 15929:1 16814:1 23096:1 23187:1 23266:1 23945:1 24026:1 25805:1 26481:1 27901:1 28015:1 #
-0.012407231014442550789955710399681 6934:1 7344:1 13864:1 15390:1 15506:1 17319:1 18287:1 19857:1 22918:1 23187:1 26481:1 26757:1 27768:1 #
-0.020917272223350810711473002356797 3391:1 13131:1 16568:1 19857:1 23266:1 23287:1 25621:1 26262:1 27667:1 #
-0.0090769880880614706858411366852124 8189:1 9157:1 9404:1 13277:1 13827:1 19733:1 19768:1 19857:1 22050:1 23187:1 23266:1 26191:1 26199:1 26731:1 28168:1 28199:1 #
-0.016130212273147096629921648514028 5840:1 7507:1 10012:1 11161:1 12191:1 15503:1 16888:1 17724:1 17938:1 19857:1 20109:1 21559:1 22618:1 23187:1 26191:1 26317:1 26481:1 26550:1 27980:1 27996:1 #
0.050724198171580581195883041800698 978:1 3340:1 6281:1 7422:1 7911:1 12936:1 14621:1 15929:1 17997:1 19121:1 21559:1 21566:1 22846:1 23187:1 26191:1 27950:1 28276:1 28752:1 #
-0.0083526116359386344545345792766966 6933:1 6970:1 9913:1 11161:1 11930:1 12987:1 13102:1 14149:1 15143:1 15234:1 16099:1 16481:1 16593:1 16862:1 19604:1 19857:1 22967:1 23266:1 24679:1 26481:1 28279:1 #
-0.01269088371872806320084237086121 8128:1 11999:1 18731:1 19857:1 20109:1 20312:1 21970:1 23187:1 25805:1 26191:1 26219:1 26481:1 27895:1 #
-0.014786154676311898115148579790912 5875:1 6957:1 7044:1 7938:1 10367:1 13637:1 15161:1 15503:1 17240:1 18131:1 18646:1 19857:1 21559:1 25638:1 26481:1 28752:1 #
-0.015817870919334463958305647679481 6811:1 7911:1 8201:1 13864:1 15864:1 16568:1 17622:1 19417:1 19514:1 19857:1 23187:1 23948:1 25714:1 26185:1 26262:1 26481:1 27041:1 28199:1 28544:1 #
-0.013790429128598086921941856530793 9241:1 11817:1 14485:1 14649:1 19531:1 19857:1 19986:1 20368:1 23187:1 24725:1 26191:1 26889:1 27667:1 #
0.0059239191610614746336116454017429 3340:1 6993:1 9138:1 9812:1 11161:1 14067:1 15705:1 15809:1 15864:1 17714:1 18049:1 19268:1 20960:1 21566:1 24576:1 25317:1 26191:1 26481:1 26865:1 27394:1 #
-0.0038854322524585474182834410328269 6993:1 7252:1 14426:1 15306:1 15644:1 15864:1 16099:1 17622:1 19857:1 20115:1 23187:1 23266:1 23780:1 26191:1 26208:1 26219:1 26228:1 26262:1 26481:1 27980:1 28611:1 #
0.0035439635545069922070715584538902 6353:1 7068:1 8738:1 11930:1 14116:1 15217:1 15265:1 15395:1 15864:1 16988:1 18312:1 19843:1 19986:1 22309:1 22795:1 23096:1 23187:1 23266:1 26191:1 27041:1 27394:1 28120:1 #
-0.01866569954220368213193559370211 984:1 9138:1 11767:1 12840:1 13240:1 13388:1 15539:1 16099:1 16568:1 16593:1 19857:1 21371:1 21806:1 23266:1 25805:1 28147:1 28752:1 #
0.0055576259909386636556827276933745 978:1 6153:1 6157:1 6993:1 9138:1 10953:1 11082:1 14189:1 15265:1 15563:1 15716:1 15929:1 16099:1 19733:1 21104:1 21597:1 21973:1 23096:1 23266:1 23657:1 25638:1 25955:1 25960:1 26191:1 26262:1 27448:1 27996:1 28580:1 #
-0.0031265956416716557224322325936328 5773:1 9950:1 10624:1 12687:1 13864:1 14603:1 14894:1 19857:1 19990:1 20109:1 23187:1 26191:1 26550:1 27455:1 28021:1 #
-0.032256557423302086029526236643505 13864:1 14102:1 17969:1 19857:1 23266:1 26897:1 28685:1 #
0.0044146654585464802089678215679669 978:1 6993:1 9219:1 10570:1 12081:1 13864:1 15281:1 15286:1 16568:1 16987:1 17140:1 18113:1 19733:1 20814:1 23096:1 23187:1 25935:1 26191:1 26254:1 28752:1 #
0.039005716432631003243169942606983 4244:1 8136:1 8187:1 11633:1 14116:1 15929:1 17050:1 22618:1 23096:1 23187:1 28322:1 #
-0.026091265460848198781684814662185 7233:1 14758:1 15395:1 15498:1 16807:1 19514:1 19857:1 19990:1 20755:1 20814:1 23187:1 23266:1 24263:1 24655:1 26191:1 26481:1 #
-0.0084365332082414010855808683686519 6255:1 6299:1 15201:1 15644:1 15864:1 17667:1 18515:1 19533:1 19857:1 20109:1 26182:1 26191:1 26405:1 #
0.03936141168533736217627350129078 6993:1 7352:1 15503:1 15705:1 16099:1 16907:1 23096:1 23556:1 24218:1 26191:1 27892:1 28190:1 #
-0.011673698196032852858472494972375 6849:1 7642:1 7788:1 9029:1 14426:1 15825:1 16840:1 17080:1 19221:1 19857:1 19986:1 22269:1 23187:1 23266:1 26481:1 27041:1 #
0.010476806215175250847071453108583 6299:1 8093:1 9050:1 11956:1 13864:1 14008:1 16568:1 16593:1 16909:1 17386:1 18423:1 19986:1 20225:1 21360:1 23096:1 23623:1 23656:1 25567:1 26171:1 26191:1 28468:1 #
0.01313701266802159983715370117352 2479:1 7851:1 11161:1 13929:1 15562:1 16405:1 17894:1 19019:1 19138:1 19268:1 21566:1 23652:1 26171:1 26191:1 26481:1 26550:1 28368:1 #
0.03901391670134014832971303121667 12448:1 17056:1 18738:1 19285:1 20312:1 23096:1 26481:1 26865:1 28550:1 #
-0.02104233230879497262844068927734 6299:1 6993:1 8766:1 9450:1 10038:1 11161:1 13864:1 15503:1 16099:1 19316:1 19843:1 19857:1 20312:1 23187:1 24026:1 26191:1 26481:1 28523:1 #
0.036552826173364041939528590319242 6299:1 11212:1 11999:1 12410:1 13481:1 13658:1 15864:1 16593:1 18131:1 20059:1 22716:1 23096:1 23266:1 24026:1 25805:1 26185:1 26247:1 26481:1 26844:1 27449:1 27996:1 28147:1 #
0.029500224723758100564552364630799 978:1 1319:1 3340:1 11161:1 14661:1 19268:1 21566:1 22269:1 24507:1 26191:1 26481:1 27942:1 #
-0.0070823456036909508345966735021193 6299:1 8136:1 11161:1 13637:1 16811:1 18391:1 18946:1 19459:1 19857:1 19986:1 20225:1 21183:1 22618:1 23187:1 26191:1 26262:1 27925:1 28199:1 #
0.052848799927178648216941070359098 1099:1 6353:1 9227:1 15265:1 15503:1 18837:1 19138:1 22495:1 23187:1 24048:1 24576:1 25960:1 26185:1 26481:1 28752:1 #
0.03265073525603054416244219737564 6993:1 9094:1 14684:1 15478:1 16593:1 16909:1 17140:1 18840:1 23096:1 23266:1 24012:1 26171:1 26481:1 27895:1 28752:1 #
0.0105766006686785450641163919272 975:1 6353:1 7342:1 8201:1 8642:1 9219:1 13864:1 14422:1 15369:1 15864:1 16470:1 20814:1 23096:1 23187:1 25638:1 25955:1 26191:1 26481:1 28276:1 28752:1 28765:1 #
0.036638212247752391381716563500959 5648:1 6993:1 13607:1 15864:1 18049:1 19809:1 19986:1 23096:1 24576:1 26444:1 28762:1 #
-0.010643465588885028805243848637474 6658:1 6993:1 7044:1 7788:1 8074:1 14047:1 15161:1 15864:1 17588:1 17958:1 18276:1 18646:1 19268:1 19857:1 19986:1 23187:1 26191:1 26495:1 26978:1 28680:1 #
0.016453541918369576912972718218953 7233:1 9725:1 11930:1 13022:1 14422:1 14596:1 16099:1 21113:1 22249:1 23096:1 23187:1 25221:1 25880:1 26481:1 27850:1 27996:1 28120:1 28752:1 28762:1 #
-0.020226125569445810997715184953449 5739:1 6254:1 6353:1 6716:1 13131:1 13445:1 13462:1 14753:1 15265:1 15716:1 17140:1 19055:1 19768:1 19837:1 19857:1 21371:1 23187:1 24272:1 26185:1 26191:1 26481:1 27996:1 28238:1 #
-0.034803391233648443836568020515188 11009:1 11999:1 14108:1 14741:1 15864:1 15929:1 16099:1 18049:1 18163:1 19586:1 19857:1 21023:1 23187:1 25805:1 26191:1 28292:1 28731:1 28752:1 #
0.014410442763620140080305098706503 6299:1 6353:1 6811:1 9789:1 10915:1 12010:1 14102:1 14499:1 15716:1 15864:1 17622:1 18038:1 18663:1 18837:1 19986:1 23096:1 23187:1 25531:1 26191:1 26550:1 28077:1 28752:1 #
0.001630780684835867345300330910618 6299:1 6957:1 8900:1 12657:1 13212:1 15265:1 16099:1 16568:1 16780:1 17482:1 17552:1 18837:1 21826:1 21833:1 23096:1 23187:1 25580:1 26191:1 26481:1 28468:1 #
-0.0022974397793994131428130245353714 6957:1 7107:1 7217:1 7321:1 7824:1 8713:1 9138:1 13142:1 15864:1 16568:1 16984:1 17576:1 17882:1 19857:1 20109:1 23187:1 24800:1 25805:1 26191:1 26262:1 26916:1 27996:1 28156:1 28468:1 #
-0.027294589335641866040260694603603 6811:1 7831:1 9029:1 12093:1 13951:1 15201:1 16565:1 16593:1 18608:1 19522:1 19857:1 19986:1 22080:1 24731:1 25759:1 26191:1 26405:1 26481:1 #
-0.038470178718891433200521845492403 7976:1 8128:1 8733:1 11161:1 19857:1 20115:1 20312:1 23187:1 23194:1 26481:1 #
-0.0252822001065715444567683078958 3336:1 4733:1 7321:1 15798:1 19268:1 19857:1 19986:1 20432:1 21140:1 21267:1 25266:1 26059:1 26481:1 27124:1 27296:1 28258:1 28352:1 28354:1 #
-0.0070049999729078372273649577550714 6299:1 7738:1 11271:1 11627:1 11999:1 14603:1 15234:1 15265:1 15515:1 16099:1 17939:1 19857:1 19986:1 20054:1 21515:1 23187:1 23266:1 25805:1 26185:1 26207:1 26285:1 26405:1 26481:1 27236:1 27925:1 #
-0.025745327434721645976090087515331 6299:1 6970:1 6993:1 7911:1 9419:1 10997:1 11161:1 12652:1 14102:1 15234:1 15864:1 15929:1 16909:1 17311:1 19857:1 20109:1 21973:1 23187:1 25019:1 25023:1 26191:1 26481:1 27925:1 28354:1 #
-0.029238432111199173096816039674195 7595:1 10038:1 13864:1 14563:1 15395:1 15503:1 15864:1 16481:1 19278:1 19857:1 20312:1 23187:1 24026:1 24679:1 26481:1 26550:1 28120:1 28633:1 #
-0.013731091970065788937516160217456 6069:1 8016:1 9138:1 11627:1 18549:1 19857:1 23632:1 25805:1 26191:1 27667:1 #
-0.016267579487033726609590544853745 6299:1 8922:1 9671:1 11930:1 12866:1 14422:1 15217:1 15287:1 16099:1 17622:1 18038:1 18049:1 18626:1 19857:1 19986:1 22908:1 26191:1 27449:1 28147:1 28199:1 28752:1 28762:1 #
-0.032299357035152916062248351636299 9101:1 11972:1 12081:1 13599:1 16568:1 16909:1 19007:1 19121:1 19857:1 #
-0.0079863670950130992431947873910758 3336:1 9138:1 14626:1 15150:1 15999:1 16099:1 19578:1 19733:1 19857:1 20122:1 23187:1 23700:1 24048:1 24057:1 25805:1 26550:1 27394:1 28151:1 28396:1 #
0.038780075462897897753400400233659 10769:1 14563:1 14611:1 15929:1 21559:1 22216:1 23096:1 23187:1 27394:1 #
-0.0078020763882772174724333780204688 7233:1 7945:1 10539:1 19055:1 19649:1 19857:1 19986:1 23187:1 23266:1 27775:1 28190:1 #
-0.0053446687415758947770072495586646 6993:1 7321:1 15265:1 16099:1 17647:1 19857:1 20637:1 23187:1 23266:1 26191:1 26219:1 27711:1 #
-0.0097995021955243552524983385865198 8090:1 10898:1 14741:1 14945:1 16909:1 17783:1 18646:1 19268:1 19857:1 20312:1 23306:1 23872:1 27942:1 #
-0.0094902820805919056029731351031842 6299:1 9138:1 11999:1 13864:1 15265:1 15478:1 15515:1 15864:1 17265:1 17622:1 17888:1 19857:1 23104:1 23187:1 25805:1 27768:1 28497:1 #
0.020081597286471630781079511507414 7559:1 11623:1 14596:1 15265:1 16568:1 16909:1 23096:1 23438:1 23771:1 25323:1 25854:1 26481:1 #
-0.0010613401472158523822231224187362 5773:1 9950:1 10624:1 12687:1 13864:1 14603:1 14894:1 19857:1 19990:1 20109:1 23187:1 26191:1 26550:1 27455:1 28021:1 #
0.043373581567013839987989598512286 7250:1 14578:1 16568:1 19268:1 20028:1 23096:1 #
0.013101759510725270382880403019499 6993:1 12019:1 12381:1 12985:1 14810:1 15265:1 15689:1 16606:1 17140:1 17622:1 17714:1 17821:1 18837:1 19696:1 19990:1 21205:1 23096:1 23187:1 25141:1 26481:1 27394:1 28120:1 #
-0.0082010780489952424254784801860296 6299:1 13334:1 13864:1 14646:1 17888:1 19857:1 23187:1 25854:1 28752:1 #
-0.012487070382140572077922513472004 6353:1 8252:1 10944:1 13864:1 15265:1 17988:1 18626:1 19857:1 23948:1 25200:1 25871:1 27779:1 28147:1 #
-0.067837650350653408426460089231114 3091:1 3336:1 6069:1 6299:1 6413:1 7306:1 7700:1 7766:1 9349:1 15503:1 16099:1 16576:1 17418:1 17827:1 19649:1 20353:1 23187:1 25757:1 #
-0.030952213835212065429214334244534 6636:1 6993:1 16593:1 16606:1 17622:1 17897:1 18324:1 19857:1 20368:1 24770:1 26481:1 27394:1 #
-0.013093758831141184134638777436521 8621:1 13864:1 15864:1 15929:1 16909:1 17468:1 17712:1 18049:1 19733:1 19857:1 25875:1 26059:1 26262:1 27005:1 27932:1 28238:1 28276:1 28292:1 28495:1 28752:1 #
-0.0090191109538567196257652369695279 6331:1 8093:1 8252:1 8341:1 9379:1 11016:1 16568:1 16909:1 18739:1 19514:1 19522:1 19857:1 23266:1 24359:1 26171:1 28750:1 #
-0.025332936896355514461154356808947 6353:1 6933:1 7321:1 9770:1 11801:1 15808:1 16956:1 19857:1 22104:1 22786:1 23187:1 26191:1 26481:1 27465:1 #
0.0072973760347636359296918939776333 1030:1 11999:1 12519:1 14204:1 15864:1 16807:1 17056:1 20028:1 23096:1 23187:1 25805:1 26191:1 26481:1 27895:1 #
-0.0014479406158619592941833031929377 978:1 7107:1 19857:1 19865:1 20109:1 24808:1 27465:1 28238:1 #
