SVM-light Version V6.02
0 # kernel type
3 # kernel parameter -d 
1 # kernel parameter -g 
1 # kernel parameter -s 
1 # kernel parameter -r 
empty# kernel parameter -u 
28836 # highest feature index 
300 # number of training documents 
110 # number of support vectors plus 1 
0.01291795 # threshold b, each following line is a SV (starting with alpha*y)
0.017782103328092439126217882972014 15292:1 15503:1 16568:1 17851:1 18038:1 19857:1 19990:1 22249:1 22937:1 25845:1 26185:1 28752:1 #
0.016402883615525935823153957926479 6262:1 7068:1 9996:1 12240:1 12589:1 14067:1 15234:1 15265:1 16593:1 17468:1 17622:1 18377:1 19857:1 20109:1 23266:1 26191:1 26262:1 26405:1 28752:1 28762:1 #
-0.051309468007570774306103089656972 6299:1 6474:1 6993:1 8098:1 11641:1 16593:1 17714:1 19857:1 20814:1 23096:1 23266:1 25381:1 25385:1 27942:1 27950:1 27996:1 28765:1 #
0.040701571464199386152227333468545 3336:1 6466:1 6855:1 7457:1 7559:1 10997:1 11417:1 13957:1 14068:1 14182:1 15716:1 16099:1 16606:1 18177:1 18698:1 19285:1 19986:1 20539:1 22085:1 25719:1 26207:1 26943:1 28400:1 #
-0.0052663001839587013711008189886797 6811:1 6993:1 13658:1 16582:1 16593:1 19417:1 20653:1 22249:1 22937:1 23096:1 23446:1 25805:1 25863:1 26191:1 26481:1 27996:1 28120:1 28354:1 28461:1 #
-0.010564477858107945013044215443188 6353:1 6993:1 9219:1 10158:1 11731:1 15283:1 15864:1 16254:1 16568:1 18777:1 18956:1 19055:1 23096:1 26185:1 28151:1 28461:1 #
-0.034220112768704465111557766476835 6299:1 12249:1 20095:1 22249:1 23096:1 28752:1 #
0.010022322687123629003647096169516 6957:1 7083:1 10048:1 11534:1 13894:1 15929:1 17578:1 19099:1 19357:1 19857:1 19986:1 20115:1 20312:1 21131:1 23187:1 23266:1 25110:1 26191:1 26550:1 26827:1 #
-0.007015012708924722034664611669541 2108:1 6607:1 6652:1 6993:1 7321:1 10263:1 15864:1 16568:1 19649:1 19733:1 21394:1 22268:1 23096:1 23187:1 24804:1 26191:1 28159:1 #
0.00015002077678231626189919722946797 6299:1 6766:1 8718:1 8985:1 11023:1 13864:1 14169:1 15808:1 16956:1 19733:1 19771:1 19857:1 23266:1 26481:1 27769:1 #
0.026487886540286196407345542525036 2934:1 6043:1 6299:1 7044:1 7911:1 9367:1 10199:1 14068:1 16099:1 16909:1 19733:1 19857:1 19986:1 20307:1 20814:1 21524:1 21557:1 26191:1 26827:1 27996:1 28276:1 28677:1 #
0.01055572006471415698325433396576 4733:1 6957:1 7360:1 11629:1 18620:1 18622:1 19857:1 19986:1 21500:1 23592:1 23700:1 #
0.014369568343545711941455778060117 6037:1 6614:1 9138:1 13626:1 19019:1 19121:1 19857:1 25805:1 28762:1 #
-0.041854010442409446401956785166476 6299:1 7965:1 8985:1 12938:1 13585:1 13587:1 13734:1 13764:1 15265:1 17622:1 18837:1 18907:1 22249:1 23187:1 23266:1 23992:1 24251:1 25855:1 26191:1 #
-0.018382978953593240301067623931885 6933:1 6993:1 8442:1 9331:1 15217:1 15864:1 16099:1 19986:1 22795:1 23064:1 23096:1 24384:1 26188:1 26191:1 26481:1 27987:1 28201:1 28762:1 #
-0.063327907373500497145712984092825 6299:1 7788:1 12351:1 13328:1 14667:1 15989:1 18423:1 18837:1 19268:1 19733:1 20225:1 27041:1 27768:1 #
-0.056838421803380972940900051071367 975:1 978:1 1030:1 2824:1 4018:1 5924:1 5987:1 6160:1 8074:1 14894:1 15478:1 16099:1 17140:1 17390:1 17988:1 18312:1 19857:1 23096:1 23187:1 27996:1 #
-0.0075953528233101766375945373965806 6299:1 6970:1 7564:1 11972:1 16780:1 16802:1 17602:1 18913:1 19331:1 23096:1 23187:1 23266:1 25861:1 28164:1 #
0.02600312113036479938488199081803 3779:1 4150:1 10236:1 17888:1 19857:1 23104:1 26629:1 #
0.024251841947908112789855650248683 6299:1 6766:1 8718:1 8985:1 11023:1 13864:1 14169:1 15808:1 16956:1 19733:1 19771:1 19857:1 23266:1 26481:1 27769:1 #
-0.04210000709407962088404175915457 6299:1 6993:1 8922:1 9819:1 11627:1 11715:1 13486:1 15234:1 15265:1 15503:1 15864:1 16593:1 17622:1 18534:1 19857:1 19986:1 21538:1 23096:1 23266:1 24834:1 25805:1 26202:1 27925:1 28354:1 #
0.045261400191620976274364807068196 6299:1 9138:1 13847:1 15481:1 18131:1 19857:1 19986:1 25805:1 26481:1 26550:1 27846:1 27942:1 #
-0.032762673715827805853706422567484 2798:1 7352:1 8201:1 23096:1 24463:1 27070:1 #
0.030078617843315669233561493456364 978:1 4079:1 6299:1 6855:1 11980:1 12410:1 12739:1 12981:1 13658:1 13864:1 15014:1 15234:1 15864:1 15929:1 18963:1 19857:1 23187:1 23306:1 26191:1 26405:1 26481:1 27110:1 28495:1 #
0.0088696507229740362970860090285896 6299:1 6348:1 7628:1 8950:1 9094:1 10048:1 11161:1 12179:1 13671:1 16099:1 16575:1 19857:1 20130:1 21447:1 24195:1 25023:1 26191:1 26481:1 27448:1 27465:1 28164:1 28354:1 #
0.026478246129893641402919257643589 2040:1 6353:1 6379:1 6993:1 12496:1 16059:1 17414:1 17806:1 19055:1 19857:1 19986:1 20115:1 22478:1 23187:1 25403:1 25872:1 26191:1 26244:1 #
0.013400770496403830583931338082948 2483:1 7422:1 7945:1 11956:1 12580:1 12987:1 17851:1 19857:1 20122:1 20814:1 23187:1 25618:1 26191:1 28199:1 #
0.0020847179457297105101276635252816 6299:1 7911:1 11909:1 15201:1 19857:1 21559:1 21828:1 26481:1 #
-0.0014980842126991571194860597415754 6993:1 7352:1 15503:1 15705:1 16099:1 16907:1 23096:1 23556:1 24218:1 26191:1 27892:1 28190:1 #
-0.043814760379413175694907067736494 978:1 1030:1 12415:1 15208:1 23096:1 #
-0.027055555958869520472021008572483 6811:1 13250:1 14715:1 18131:1 18549:1 19649:1 19986:1 20109:1 21930:1 23096:1 24576:1 25452:1 26225:1 #
-0.0285435864429666452668499232459 1030:1 10968:1 15478:1 15681:1 16568:1 16909:1 17622:1 19990:1 23096:1 23205:1 24576:1 26185:1 26191:1 26481:1 #
-0.0037053376694458472345727884089683 5778:1 5839:1 6159:1 6299:1 8162:1 9029:1 11183:1 12739:1 16099:1 16152:1 16153:1 16191:1 16907:1 18312:1 19986:1 23096:1 23187:1 26191:1 #
0.034513746831265353087747627114368 1099:1 8267:1 8268:1 9883:1 19857:1 23187:1 25110:1 #
-0.025052219600717906544673496682663 6970:1 8985:1 11161:1 13051:1 14422:1 15918:1 16568:1 18731:1 18837:1 19510:1 19733:1 20028:1 21259:1 22303:1 23096:1 23187:1 26185:1 26191:1 26481:1 26550:1 26557:1 27811:1 27942:1 #
0.037738326591224294337401090615458 13864:1 15864:1 16909:1 19857:1 23187:1 24662:1 26202:1 26228:1 26968:1 27249:1 27779:1 28086:1 #
0.020588587173482587877604288451039 978:1 6353:1 7833:1 7844:1 9219:1 10207:1 12997:1 16133:1 16568:1 17622:1 19857:1 22383:1 24576:1 26225:1 28238:1 #
-0.04473776745767487489358060770428 984:1 6299:1 9222:1 11999:1 12448:1 15864:1 16526:1 16802:1 16807:1 16988:1 19857:1 23096:1 23306:1 23441:1 25805:1 27895:1 27901:1 28159:1 28199:1 #
0.024359229920339117020366970223222 4886:1 6299:1 6993:1 7838:1 7955:1 8686:1 8985:1 14616:1 15864:1 15929:1 16568:1 16673:1 16909:1 18049:1 19103:1 19733:1 19857:1 20109:1 20173:1 21267:1 22445:1 26481:1 26861:1 27394:1 #
0.015321353489184987017868166958579 6896:1 12987:1 13864:1 15716:1 15864:1 16909:1 17140:1 17512:1 17622:1 18049:1 19733:1 19857:1 19952:1 20225:1 22104:1 24183:1 26481:1 27779:1 27898:1 #
-0.0037321225599160406591336958115335 1030:1 6934:1 7078:1 10038:1 11367:1 11956:1 12081:1 12574:1 15039:1 20109:1 20814:1 23096:1 23187:1 26191:1 28151:1 #
-0.019341692815223528179036094343246 13322:1 13864:1 15448:1 15864:1 16135:1 17909:1 17970:1 19733:1 20109:1 22218:1 23096:1 25955:1 28276:1 #
0.031521902140618535126392885103996 1030:1 6299:1 6400:1 6993:1 7774:1 9394:1 10058:1 14250:1 15237:1 16099:1 19285:1 19768:1 19857:1 20016:1 22826:1 23187:1 26137:1 26481:1 27394:1 27448:1 27811:1 27901:1 28199:1 #
0.019919789936986287415265906020068 5703:1 6519:1 7788:1 9450:1 11123:1 14422:1 14678:1 15265:1 15514:1 16099:1 17819:1 19055:1 19857:1 19986:1 22920:1 23306:1 26700:1 28495:1 #
-0.048430479449907241906725374747111 16909:1 17938:1 22716:1 23096:1 26191:1 27768:1 #
0.023773329680093945731611526639426 9455:1 18136:1 19019:1 19857:1 23187:1 26171:1 27005:1 #
-0.01435161392458445504816122451075 13864:1 18837:1 23096:1 23266:1 27779:1 28199:1 #
0.014843183336418069862006063885929 5849:1 6459:1 7457:1 9138:1 15265:1 16099:1 17566:1 19857:1 21559:1 23306:1 25805:1 26208:1 26297:1 28358:1 #
0.0054681112197315518558271563165363 1869:1 4733:1 7422:1 7911:1 7945:1 9819:1 13267:1 17512:1 17622:1 18423:1 19857:1 26185:1 26700:1 28752:1 #
0.021019981737594613940833809806463 9101:1 11147:1 12290:1 16984:1 17585:1 17926:1 18423:1 19857:1 21153:1 23266:1 26550:1 #
-0.015224422293025037869473869989179 6340:1 7911:1 8985:1 16421:1 16568:1 16909:1 18837:1 19510:1 20115:1 23096:1 23187:1 24713:1 26185:1 26191:1 26240:1 26262:1 26481:1 27356:1 28276:1 #
0.03490706502197719190982994064143 6993:1 7911:1 8569:1 11161:1 11957:1 12290:1 15864:1 16593:1 17738:1 18049:1 18423:1 19857:1 25805:1 25991:1 26191:1 26973:1 28077:1 28752:1 #
0.023275567835623234280717497313162 6576:1 8189:1 9404:1 13907:1 14894:1 19488:1 19857:1 23187:1 23515:1 27646:1 28034:1 #
0.040708322985261877202667335495789 6299:1 6934:1 6993:1 7086:1 7233:1 8093:1 12525:1 15265:1 15644:1 15918:1 16568:1 19733:1 19857:1 21678:1 22249:1 23187:1 28752:1 28762:1 #
-0.0015351522355148087412013424568613 6993:1 9525:1 9620:1 10659:1 12081:1 15929:1 20109:1 23096:1 26228:1 28147:1 28503:1 #
-0.067796182751309636005387915247411 844:1 3336:1 4081:1 6299:1 6993:1 7647:1 12981:1 13596:1 15864:1 16099:1 17929:1 18423:1 19273:1 20112:1 22260:1 23187:1 26191:1 26481:1 26865:1 28164:1 #
0.062698102098599620135566112821834 6811:1 9138:1 14422:1 15030:1 15201:1 16568:1 16909:1 19857:1 21267:1 23096:1 23306:1 23438:1 23660:1 23948:1 24251:1 25805:1 26188:1 26481:1 26557:1 27776:1 28752:1 #
-0.0042709809672517706075067778215271 7976:1 9138:1 10737:1 13277:1 13864:1 14621:1 14684:1 15265:1 16099:1 18312:1 19733:1 23096:1 23187:1 23266:1 23506:1 25805:1 25854:1 26185:1 27925:1 28151:1 #
-0.021830977171773086747963432685538 5708:1 6299:1 10048:1 11112:1 13864:1 15201:1 15395:1 15652:1 17939:1 19510:1 19986:1 21111:1 23096:1 23187:1 23266:1 25413:1 26185:1 #
0.017502154301411394776710750420534 12669:1 14611:1 17762:1 19857:1 23438:1 26191:1 28292:1 #
0.037429903151594327848084020615715 2:1 3340:1 6933:1 17622:1 17959:1 17964:1 19572:1 19857:1 20052:1 23187:1 #
-0.042081188329245435009173803564408 4081:1 5973:1 6299:1 6353:1 6933:1 7356:1 8252:1 9029:1 12525:1 14422:1 14616:1 14943:1 15265:1 15929:1 16908:1 16909:1 18168:1 19986:1 23441:1 24576:1 28354:1 #
-0.046307948894373049397721331388311 6299:1 6614:1 7107:1 9138:1 15234:1 15265:1 17140:1 18837:1 21104:1 21663:1 22220:1 23187:1 24183:1 27901:1 27996:1 28495:1 #
-0.014551935466891948930956424135275 5684:1 8546:1 11930:1 14067:1 16568:1 17140:1 18163:1 18963:1 19268:1 20579:1 23096:1 23187:1 23306:1 28199:1 28752:1 28762:1 #
0.0034962652630672720957538679442678 6716:1 10974:1 11161:1 12987:1 13205:1 14592:1 15234:1 19127:1 19224:1 19857:1 20109:1 20429:1 23187:1 23599:1 26191:1 26199:1 26540:1 27014:1 27811:1 27942:1 28276:1 #
0.047537142815232816261961090731347 978:1 6037:1 7422:1 8969:1 11668:1 13864:1 15265:1 15369:1 17151:1 17304:1 19857:1 21249:1 23096:1 23266:1 24416:1 25861:1 26191:1 26481:1 27441:1 28120:1 28680:1 #
0.015639209172411516757250637965626 6299:1 6993:1 11623:1 13022:1 13864:1 15511:1 15705:1 16099:1 19857:1 22716:1 25266:1 26191:1 27769:1 28086:1 28120:1 #
-0.0045428346074268179805022427331096 975:1 6353:1 7342:1 8201:1 8642:1 9219:1 13864:1 14422:1 15369:1 15864:1 16470:1 20814:1 23096:1 23187:1 25638:1 25955:1 26191:1 26481:1 28276:1 28752:1 28765:1 #
0.015733191659656940719624884650329 6993:1 7422:1 7945:1 8568:1 11161:1 13458:1 15864:1 16909:1 17890:1 19733:1 19857:1 19986:1 23266:1 23347:1 24117:1 24122:1 26185:1 26191:1 27980:1 28752:1 #
0.026065239726858206031900877519547 5857:1 13154:1 15718:1 19857:1 20008:1 25189:1 25621:1 #
0.034269097532463141386749327921279 6299:1 6353:1 15716:1 16099:1 16434:1 16568:1 16780:1 17482:1 17555:1 19857:1 20112:1 20714:1 23187:1 28164:1 #
0.017150982809098453546470253172629 9029:1 10124:1 11547:1 11956:1 15145:1 19857:1 19986:1 22095:1 23266:1 24117:1 24835:1 27014:1 27646:1 #
-0.045345387791756057438430360662096 6200:1 15265:1 16099:1 16909:1 18468:1 22303:1 22843:1 23096:1 23306:1 26481:1 27936:1 28495:1 #
-0.018177799542108727393063816180074 6299:1 10536:1 15705:1 19986:1 21576:1 23096:1 24655:1 26191:1 27542:1 28190:1 #
-0.012545186444489275084945845151196 6474:1 6876:1 6993:1 15265:1 16568:1 18131:1 19733:1 19919:1 20693:1 20814:1 20845:1 22220:1 23096:1 25960:1 26171:1 26191:1 26481:1 26865:1 27411:1 27488:1 #
0.056387779482653749285603339558293 6069:1 6970:1 7233:1 7559:1 11161:1 12165:1 13864:1 14271:1 15702:1 17506:1 19865:1 26171:1 26191:1 28120:1 28449:1 #
0.037075445263014525365541373957967 5708:1 6299:1 9996:1 11405:1 11959:1 14649:1 15234:1 19307:1 19857:1 21250:1 23187:1 26191:1 #
-0.022832168793597725636734807608264 6993:1 9138:1 15503:1 16568:1 17622:1 17738:1 18037:1 19986:1 22095:1 23096:1 23620:1 23787:1 24384:1 24655:1 25140:1 25854:1 26037:1 26191:1 26328:1 26481:1 28322:1 28611:1 #
0.070792840651569599597081605679705 4081:1 6037:1 6299:1 8984:1 11138:1 13637:1 14596:1 15201:1 15234:1 15265:1 15354:1 16568:1 18825:1 19986:1 20644:1 26115:1 26191:1 26481:1 28354:1 28672:1 28680:1 #
0.01834696657512631737252384311887 8177:1 8544:1 10001:1 14809:1 16099:1 17004:1 19857:1 20109:1 20643:1 22392:1 26834:1 #
-0.014997319535373015292334386572293 6515:1 8893:1 10566:1 10570:1 15283:1 15503:1 17731:1 19733:1 19986:1 20312:1 21104:1 22975:1 23096:1 23187:1 23229:1 26382:1 26481:1 27787:1 28276:1 28752:1 #
-0.01195511065219360437306139743896 984:1 4081:1 5326:1 5708:1 5839:1 5972:1 13902:1 15265:1 15716:1 16099:1 17371:1 17966:1 18136:1 20312:1 21227:1 23096:1 26191:1 #
-0.051180602016747463178791832660863 67:1 3336:1 3746:1 4081:1 7338:1 8790:1 8985:1 10001:1 13864:1 15209:1 18552:1 18963:1 20579:1 22613:1 23441:1 25221:1 25805:1 26191:1 27394:1 28762:1 #
0.021646553652541616896698428718082 6299:1 6871:1 7911:1 10001:1 10585:1 11183:1 11957:1 14766:1 15265:1 15716:1 16099:1 17044:1 17554:1 17808:1 18423:1 19138:1 19857:1 23187:1 23266:1 23446:1 23498:1 25805:1 26481:1 27895:1 #
-0.012297424228159704179264011258965 8370:1 13021:1 15864:1 16099:1 20211:1 21394:1 21470:1 22407:1 23096:1 26191:1 26374:1 27942:1 28225:1 #
-0.019277553330045878871024100931209 5234:1 6353:1 6993:1 8985:1 12448:1 14422:1 15716:1 16059:1 16568:1 16593:1 19986:1 20714:1 22303:1 22920:1 23096:1 24450:1 25871:1 27892:1 28752:1 #
-0.036073273480803878798806039185365 8093:1 12506:1 13842:1 13864:1 14102:1 15478:1 15864:1 15929:1 16593:1 18837:1 19733:1 20814:1 23187:1 25055:1 25805:1 26202:1 27931:1 28354:1 28499:1 28541:1 #
0.013171682344171223300044459847413 6993:1 7233:1 8472:1 10611:1 15613:1 16099:1 17622:1 19857:1 20005:1 23187:1 23266:1 24059:1 26262:1 28120:1 28354:1 28541:1 #
0.0068026472000207397622384419832997 6299:1 6474:1 9219:1 11161:1 14596:1 15281:1 16568:1 17929:1 19857:1 23187:1 26481:1 #
0.0089972325771106604480609192364682 904:1 6200:1 7233:1 8985:1 10953:1 10964:1 13864:1 14067:1 16593:1 18468:1 19019:1 19733:1 19857:1 20122:1 21104:1 22048:1 26481:1 27563:1 28147:1 28238:1 28752:1 #
-0.013835039601731425468189584648826 5686:1 5708:1 5709:1 6353:1 8846:1 9029:1 10583:1 13240:1 13864:1 14755:1 18709:1 19403:1 20781:1 23096:1 23187:1 23263:1 24313:1 25404:1 26191:1 #
0.020251962967182259717224823702963 984:1 12410:1 19103:1 19857:1 19986:1 19990:1 26191:1 26481:1 26575:1 26865:1 #
-0.01659112128936542779333862540625 1030:1 6636:1 12081:1 14678:1 15518:1 17654:1 23096:1 23187:1 26191:1 26762:1 #
0.010968622125961873664534707017992 6970:1 7321:1 15265:1 15354:1 15918:1 17736:1 17897:1 19649:1 19768:1 19857:1 22937:1 28000:1 #
-0.021256473868611878291767780524424 6299:1 6993:1 7033:1 7911:1 11161:1 14596:1 19327:1 19986:1 20109:1 20286:1 22273:1 23096:1 23266:1 26191:1 26481:1 26572:1 27031:1 27032:1 27950:1 28354:1 #
-0.029579252596149251813839597957667 6993:1 9138:1 16434:1 16939:1 20109:1 21153:1 23096:1 23187:1 25023:1 27864:1 #
-0.0041017680142943612614514492520357 978:1 7308:1 7488:1 14422:1 15094:1 15265:1 15268:1 15503:1 16000:1 16099:1 17482:1 17523:1 19768:1 22786:1 23096:1 23266:1 23287:1 24150:1 25805:1 26185:1 26191:1 28396:1 28836:1 #
0.0032445786864746285760308097678717 7788:1 13864:1 15478:1 16568:1 19857:1 23187:1 26262:1 27779:1 28677:1 #
-0.0090709981721243601593407390737411 4244:1 8136:1 8187:1 11633:1 14116:1 15929:1 17050:1 22618:1 23096:1 23187:1 28322:1 #
0.018379150620122072096185306122607 6299:1 6458:1 7422:1 11161:1 14621:1 15864:1 16568:1 17334:1 17622:1 19733:1 19857:1 26191:1 26240:1 26262:1 28354:1 28495:1 #
-0.0034826644622848032181727795375537 5839:1 6299:1 8173:1 10730:1 11161:1 11909:1 12376:1 14692:1 15929:1 16802:1 18180:1 19986:1 20225:1 21317:1 23096:1 23446:1 #
0.0038803237195696202270489560959277 6957:1 6993:1 7460:1 8120:1 9672:1 16568:1 16758:1 18896:1 19733:1 19857:1 26191:1 27646:1 27667:1 #
-0.005990286709799792774777671411357 1099:1 8610:1 8985:1 15234:1 15864:1 19510:1 20633:1 20636:1 23096:1 23187:1 24026:1 24175:1 28495:1 28752:1 #
-0.002891919579981012174835219852298 978:1 984:1 1099:1 6993:1 7911:1 12525:1 15864:1 15929:1 16593:1 17416:1 17738:1 18049:1 19649:1 19865:1 23096:1 25112:1 26191:1 26219:1 26481:1 28276:1 #
-0.041153146030231201046856170933097 4769:1 6299:1 11627:1 14499:1 14563:1 15265:1 15929:1 16152:1 16807:1 16988:1 19857:1 21104:1 22249:1 22846:1 23096:1 23347:1 23441:1 25221:1 25805:1 26191:1 26244:1 26481:1 27448:1 28752:1 #
-0.011603300247270194323068182029601 6353:1 7945:1 8252:1 8646:1 8985:1 11930:1 15234:1 15265:1 15716:1 17622:1 17686:1 18963:1 19138:1 19733:1 20814:1 22197:1 22908:1 23096:1 23266:1 26208:1 26228:1 26481:1 28238:1 #
-0.007194317954906595188879769864343 6353:1 6811:1 7352:1 8201:1 11999:1 13637:1 17140:1 17622:1 19582:1 19986:1 23096:1 24731:1 25805:1 25874:1 28550:1 28752:1 #
0.029786709359112786138501505206477 1030:1 6262:1 8985:1 9852:1 16099:1 16205:1 16984:1 18682:1 19733:1 19857:1 20109:1 20653:1 23574:1 25160:1 26185:1 26191:1 27448:1 27892:1 #
0.0029609563803164639164688942685189 12692:1 16568:1 19857:1 21559:1 23266:1 26191:1 26848:1 28485:1 #
